<?xml version="1.0" encoding="UTF-8" standalone="yes"?>
<PMML xmlns="http://www.dmg.org/PMML-4_3" version="4.3">
	<Header>
		<Application/>
		<Timestamp>2018-06-18T08:15:31Z</Timestamp>
	</Header>
	<DataDictionary>
		<DataField name="quality" optype="categorical" dataType="integer">
			<Value value="6"/>
			<Value value="5"/>
			<Value value="7"/>
			<Value value="8"/>
			<Value value="4"/>
			<Value value="652"/>
		</DataField>
		<DataField name="fixed_acidity" optype="continuous" dataType="double"/>
		<DataField name="volatile_acidity" optype="continuous" dataType="double"/>
		<DataField name="citric_acid" optype="continuous" dataType="double"/>
		<DataField name="density" optype="continuous" dataType="double"/>
	</DataDictionary>
	<MiningModel functionName="classification">
		<MiningSchema>
			<MiningField name="quality" usageType="target"/>
			<MiningField name="fixed_acidity"/>
			<MiningField name="volatile_acidity"/>
			<MiningField name="citric_acid"/>
			<MiningField name="density"/>
		</MiningSchema>
		<Output>
			<OutputField name="pmml(predictionIndexed)" optype="categorical" dataType="integer" feature="predictedValue"/>
			<OutputField name="predictionIndexed" optype="categorical" dataType="double" feature="transformedValue">
				<MapValues outputColumn="output">
					<FieldColumnPair field="pmml(predictionIndexed)" column="input"/>
					<InlineTable>
						<row>
							<input xmlns:ns2="http://www.dmg.org/PMML-4_3" xmlns="">6</input>
							<output xmlns:ns2="http://www.dmg.org/PMML-4_3" xmlns="">0</output>
						</row>
						<row>
							<input xmlns:ns2="http://www.dmg.org/PMML-4_3" xmlns="">5</input>
							<output xmlns:ns2="http://www.dmg.org/PMML-4_3" xmlns="">1</output>
						</row>
						<row>
							<input xmlns:ns2="http://www.dmg.org/PMML-4_3" xmlns="">7</input>
							<output xmlns:ns2="http://www.dmg.org/PMML-4_3" xmlns="">2</output>
						</row>
						<row>
							<input xmlns:ns2="http://www.dmg.org/PMML-4_3" xmlns="">8</input>
							<output xmlns:ns2="http://www.dmg.org/PMML-4_3" xmlns="">3</output>
						</row>
						<row>
							<input xmlns:ns2="http://www.dmg.org/PMML-4_3" xmlns="">4</input>
							<output xmlns:ns2="http://www.dmg.org/PMML-4_3" xmlns="">4</output>
						</row>
						<row>
							<input xmlns:ns2="http://www.dmg.org/PMML-4_3" xmlns="">652</input>
							<output xmlns:ns2="http://www.dmg.org/PMML-4_3" xmlns="">5</output>
						</row>
					</InlineTable>
				</MapValues>
			</OutputField>
			<OutputField name="probability(6)" optype="continuous" dataType="double" feature="probability" value="6"/>
			<OutputField name="probability(5)" optype="continuous" dataType="double" feature="probability" value="5"/>
			<OutputField name="probability(7)" optype="continuous" dataType="double" feature="probability" value="7"/>
			<OutputField name="probability(8)" optype="continuous" dataType="double" feature="probability" value="8"/>
			<OutputField name="probability(4)" optype="continuous" dataType="double" feature="probability" value="4"/>
			<OutputField name="probability(652)" optype="continuous" dataType="double" feature="probability" value="652"/>
		</Output>
		<Segmentation multipleModelMethod="average">
			<Segment id="1">
				<True/>
				<TreeModel functionName="classification" missingValueStrategy="nullPrediction" splitCharacteristic="multiSplit">
					<MiningSchema>
						<MiningField name="fixed_acidity"/>
						<MiningField name="volatile_acidity"/>
						<MiningField name="citric_acid"/>
						<MiningField name="density"/>
					</MiningSchema>
					<Node>
						<True/>
						<Node>
							<SimplePredicate field="density" operator="lessOrEqual" value="0.992"/>
							<Node score="7" recordCount="3.0">
								<SimplePredicate field="fixed_acidity" operator="lessOrEqual" value="6.6"/>
								<ScoreDistribution value="6" recordCount="0.0"/>
								<ScoreDistribution value="5" recordCount="0.0"/>
								<ScoreDistribution value="7" recordCount="3.0"/>
								<ScoreDistribution value="8" recordCount="0.0"/>
								<ScoreDistribution value="4" recordCount="0.0"/>
								<ScoreDistribution value="652" recordCount="0.0"/>
							</Node>
							<Node score="6" recordCount="1.0">
								<SimplePredicate field="fixed_acidity" operator="lessOrEqual" value="7.0"/>
								<ScoreDistribution value="6" recordCount="1.0"/>
								<ScoreDistribution value="5" recordCount="0.0"/>
								<ScoreDistribution value="7" recordCount="0.0"/>
								<ScoreDistribution value="8" recordCount="0.0"/>
								<ScoreDistribution value="4" recordCount="0.0"/>
								<ScoreDistribution value="652" recordCount="0.0"/>
							</Node>
							<Node score="5" recordCount="3.0">
								<True/>
								<ScoreDistribution value="6" recordCount="0.0"/>
								<ScoreDistribution value="5" recordCount="3.0"/>
								<ScoreDistribution value="7" recordCount="0.0"/>
								<ScoreDistribution value="8" recordCount="0.0"/>
								<ScoreDistribution value="4" recordCount="0.0"/>
								<ScoreDistribution value="652" recordCount="0.0"/>
							</Node>
						</Node>
						<Node>
							<SimplePredicate field="volatile_acidity" operator="lessOrEqual" value="0.32"/>
							<Node>
								<SimplePredicate field="density" operator="lessOrEqual" value="0.9934"/>
								<Node>
									<SimplePredicate field="volatile_acidity" operator="lessOrEqual" value="0.24"/>
									<Node score="652" recordCount="1.0">
										<SimplePredicate field="citric_acid" operator="lessOrEqual" value="0.26"/>
										<ScoreDistribution value="6" recordCount="0.0"/>
										<ScoreDistribution value="5" recordCount="0.0"/>
										<ScoreDistribution value="7" recordCount="0.0"/>
										<ScoreDistribution value="8" recordCount="0.0"/>
										<ScoreDistribution value="4" recordCount="0.0"/>
										<ScoreDistribution value="652" recordCount="1.0"/>
									</Node>
									<Node score="6" recordCount="3.0">
										<True/>
										<ScoreDistribution value="6" recordCount="3.0"/>
										<ScoreDistribution value="5" recordCount="0.0"/>
										<ScoreDistribution value="7" recordCount="0.0"/>
										<ScoreDistribution value="8" recordCount="0.0"/>
										<ScoreDistribution value="4" recordCount="0.0"/>
										<ScoreDistribution value="652" recordCount="0.0"/>
									</Node>
								</Node>
								<Node score="8" recordCount="1.0">
									<True/>
									<ScoreDistribution value="6" recordCount="0.0"/>
									<ScoreDistribution value="5" recordCount="0.0"/>
									<ScoreDistribution value="7" recordCount="0.0"/>
									<ScoreDistribution value="8" recordCount="1.0"/>
									<ScoreDistribution value="4" recordCount="0.0"/>
									<ScoreDistribution value="652" recordCount="0.0"/>
								</Node>
							</Node>
							<Node score="6" recordCount="16.0">
								<True/>
								<ScoreDistribution value="6" recordCount="16.0"/>
								<ScoreDistribution value="5" recordCount="0.0"/>
								<ScoreDistribution value="7" recordCount="0.0"/>
								<ScoreDistribution value="8" recordCount="0.0"/>
								<ScoreDistribution value="4" recordCount="0.0"/>
								<ScoreDistribution value="652" recordCount="0.0"/>
							</Node>
						</Node>
						<Node score="6" recordCount="1.0">
							<SimplePredicate field="citric_acid" operator="lessOrEqual" value="0.04"/>
							<ScoreDistribution value="6" recordCount="1.0"/>
							<ScoreDistribution value="5" recordCount="0.0"/>
							<ScoreDistribution value="7" recordCount="0.0"/>
							<ScoreDistribution value="8" recordCount="0.0"/>
							<ScoreDistribution value="4" recordCount="0.0"/>
							<ScoreDistribution value="652" recordCount="0.0"/>
						</Node>
						<Node score="5" recordCount="3.0">
							<SimplePredicate field="citric_acid" operator="lessOrEqual" value="0.25"/>
							<ScoreDistribution value="6" recordCount="0.0"/>
							<ScoreDistribution value="5" recordCount="3.0"/>
							<ScoreDistribution value="7" recordCount="0.0"/>
							<ScoreDistribution value="8" recordCount="0.0"/>
							<ScoreDistribution value="4" recordCount="0.0"/>
							<ScoreDistribution value="652" recordCount="0.0"/>
						</Node>
						<Node score="4" recordCount="1.0">
							<True/>
							<ScoreDistribution value="6" recordCount="0.0"/>
							<ScoreDistribution value="5" recordCount="0.0"/>
							<ScoreDistribution value="7" recordCount="0.0"/>
							<ScoreDistribution value="8" recordCount="0.0"/>
							<ScoreDistribution value="4" recordCount="1.0"/>
							<ScoreDistribution value="652" recordCount="0.0"/>
						</Node>
					</Node>
				</TreeModel>
			</Segment>
		</Segmentation>
	</MiningModel>
</PMML>
